<?xml version="1.0"?>
<opencv_storage>
<!-- Created using Computer Vision Toolbox(tm) for MATLAB(R) -->
<!-- Version 9.9.0.1467703 (R2020b) -->
<!-- Compatible with OpenCV 4.2 -->
<cascade>
  <stageType>BOOST</stageType>
  <featureType>HOG</featureType>
  <height>32</height>
  <width>37</width>
  <stageParams>
    <boostType>GAB</boostType>
    <minHitRate>9.9500000476837158e-01</minHitRate>
    <maxFalseAlarm>1.0000000149011612e-01</maxFalseAlarm>
    <weightTrimRate>9.4999999999999996e-01</weightTrimRate>
    <maxDepth>1</maxDepth>
    <maxWeakCount>100</maxWeakCount></stageParams>
  <featureParams>
    <maxCatCount>0</maxCatCount>
    <featSize>36</featSize></featureParams>
  <stageNum>5</stageNum>
  <stages>
    <!-- stage 0 -->
    <_>
      <maxWeakCount>7</maxWeakCount>
      <stageThreshold>-2.1656955778598785e-01</stageThreshold>
      <weakClassifiers>
        <_>
          <internalNodes>
            0 -1 34 4.8299364745616913e-02</internalNodes>
          <leafValues>
            -5.3409093618392944e-01 9.2857140302658081e-01</leafValues></_>
        <_>
          <internalNodes>
            0 -1 41 2.3016389459371567e-02</internalNodes>
          <leafValues>
            5.9054172039031982e-01 -5.1258718967437744e-01</leafValues></_>
        <_>
          <internalNodes>
            0 -1 21 1.6439285129308701e-02</internalNodes>
          <leafValues>
            7.0961481332778931e-01 -4.0398576855659485e-01</leafValues></_>
        <_>
          <internalNodes>
            0 -1 40 3.8698941469192505e-02</internalNodes>
          <leafValues>
            -1.8757000565528870e-01 9.0923184156417847e-01</leafValues></_>
        <_>
          <internalNodes>
            0 -1 28 3.5856805741786957e-02</internalNodes>
          <leafValues>
            -3.3216145634651184e-01 7.8971505165100098e-01</leafValues></_>
        <_>
          <internalNodes>
            0 -1 22 1.5578363090753555e-02</internalNodes>
          <leafValues>
            8.4868007898330688e-01 -2.5632405281066895e-01</leafValues></_>
        <_>
          <internalNodes>
            0 -1 37 4.5271798968315125e-02</internalNodes>
          <leafValues>
            -1.9165620207786560e-01 9.8645102977752686e-01</leafValues></_></weakClassifiers></_>
    <!-- stage 1 -->
    <_>
      <maxWeakCount>10</maxWeakCount>
      <stageThreshold>-2.3777119815349579e-01</stageThreshold>
      <weakClassifiers>
        <_>
          <internalNodes>
            0 -1 24 2.9766533523797989e-02</internalNodes>
          <leafValues>
            -5.8024692535400391e-01 6.1904764175415039e-01</leafValues></_>
        <_>
          <internalNodes>
            0 -1 35 2.1350676193833351e-02</internalNodes>
          <leafValues>
            5.6247490644454956e-01 -4.3560537695884705e-01</leafValues></_>
        <_>
          <internalNodes>
            0 -1 5 1.8504925072193146e-02</internalNodes>
          <leafValues>
            4.9994045495986938e-01 -4.7743794322013855e-01</leafValues></_>
        <_>
          <internalNodes>
            0 -1 8 1.2646227143704891e-02</internalNodes>
          <leafValues>
            6.2300789356231689e-01 -3.2746696472167969e-01</leafValues></_>
        <_>
          <internalNodes>
            0 -1 38 2.6754137128591537e-02</internalNodes>
          <leafValues>
            -2.3466327786445618e-01 8.5115343332290649e-01</leafValues></_>
        <_>
          <internalNodes>
            0 -1 29 1.4568701386451721e-02</internalNodes>
          <leafValues>
            8.4306704998016357e-01 -2.0662441849708557e-01</leafValues></_>
        <_>
          <internalNodes>
            0 -1 26 3.4632608294487000e-02</internalNodes>
          <leafValues>
            4.4829899072647095e-01 -5.0756269693374634e-01</leafValues></_>
        <_>
          <internalNodes>
            0 -1 11 2.5341676548123360e-02</internalNodes>
          <leafValues>
            4.1960635781288147e-01 -5.0986486673355103e-01</leafValues></_>
        <_>
          <internalNodes>
            0 -1 4 2.6781015098094940e-02</internalNodes>
          <leafValues>
            5.6177443265914917e-01 -3.6767753958702087e-01</leafValues></_>
        <_>
          <internalNodes>
            0 -1 3 2.3675419390201569e-02</internalNodes>
          <leafValues>
            6.1540317535400391e-01 -3.5588097572326660e-01</leafValues></_></weakClassifiers></_>
    <!-- stage 2 -->
    <_>
      <maxWeakCount>7</maxWeakCount>
      <stageThreshold>-8.2748097181320190e-01</stageThreshold>
      <weakClassifiers>
        <_>
          <internalNodes>
            0 -1 39 2.1504316478967667e-02</internalNodes>
          <leafValues>
            8.7999999523162842e-01 -7.2727274894714355e-01</leafValues></_>
        <_>
          <internalNodes>
            0 -1 6 3.0792936682701111e-02</internalNodes>
          <leafValues>
            -4.8527586460113525e-01 8.4167176485061646e-01</leafValues></_>
        <_>
          <internalNodes>
            0 -1 32 2.7343723922967911e-02</internalNodes>
          <leafValues>
            -4.1285353899002075e-01 8.5432398319244385e-01</leafValues></_>
        <_>
          <internalNodes>
            0 -1 13 1.3554847799241543e-02</internalNodes>
          <leafValues>
            8.0559074878692627e-01 -3.0292424559593201e-01</leafValues></_>
        <_>
          <internalNodes>
            0 -1 36 3.0532898381352425e-02</internalNodes>
          <leafValues>
            -3.7161850929260254e-01 8.3633494377136230e-01</leafValues></_>
        <_>
          <internalNodes>
            0 -1 30 2.2464666515588760e-02</internalNodes>
          <leafValues>
            -4.0369576215744019e-01 7.8508263826370239e-01</leafValues></_>
        <_>
          <internalNodes>
            0 -1 15 1.8341075628995895e-02</internalNodes>
          <leafValues>
            7.6764470338821411e-01 -4.0286457538604736e-01</leafValues></_></weakClassifiers></_>
    <!-- stage 3 -->
    <_>
      <maxWeakCount>9</maxWeakCount>
      <stageThreshold>-4.1339108347892761e-01</stageThreshold>
      <weakClassifiers>
        <_>
          <internalNodes>
            0 -1 0 7.5391423888504505e-03</internalNodes>
          <leafValues>
            8.5714286565780640e-01 -5.2272725105285645e-01</leafValues></_>
        <_>
          <internalNodes>
            0 -1 27 2.9193710535764694e-02</internalNodes>
          <leafValues>
            -5.4388326406478882e-01 5.4514968395233154e-01</leafValues></_>
        <_>
          <internalNodes>
            0 -1 9 4.7668233513832092e-02</internalNodes>
          <leafValues>
            -2.1898241341114044e-01 9.4034093618392944e-01</leafValues></_>
        <_>
          <internalNodes>
            0 -1 16 5.0983771681785583e-02</internalNodes>
          <leafValues>
            -1.4821641147136688e-01 8.9705491065979004e-01</leafValues></_>
        <_>
          <internalNodes>
            0 -1 23 1.8391098827123642e-02</internalNodes>
          <leafValues>
            5.4354023933410645e-01 -2.9449683427810669e-01</leafValues></_>
        <_>
          <internalNodes>
            0 -1 25 1.9544677808880806e-02</internalNodes>
          <leafValues>
            -6.0007959604263306e-01 3.1281185150146484e-01</leafValues></_>
        <_>
          <internalNodes>
            0 -1 42 1.8320349976420403e-02</internalNodes>
          <leafValues>
            7.8318881988525391e-01 -1.7836333811283112e-01</leafValues></_>
        <_>
          <internalNodes>
            0 -1 17 1.4725919812917709e-02</internalNodes>
          <leafValues>
            5.2344435453414917e-01 -3.7987753748893738e-01</leafValues></_>
        <_>
          <internalNodes>
            0 -1 33 2.1122585982084274e-02</internalNodes>
          <leafValues>
            7.2230708599090576e-01 -2.5193914771080017e-01</leafValues></_></weakClassifiers></_>
    <!-- stage 4 -->
    <_>
      <maxWeakCount>10</maxWeakCount>
      <stageThreshold>-4.9887132644653320e-01</stageThreshold>
      <weakClassifiers>
        <_>
          <internalNodes>
            0 -1 10 1.6821168363094330e-02</internalNodes>
          <leafValues>
            7.6744186878204346e-01 -1.7808219790458679e-01</leafValues></_>
        <_>
          <internalNodes>
            0 -1 1 1.0078809224069118e-02</internalNodes>
          <leafValues>
            8.5597431659698486e-01 -1.7096218466758728e-01</leafValues></_>
        <_>
          <internalNodes>
            0 -1 31 1.2765169143676758e-02</internalNodes>
          <leafValues>
            8.5394966602325439e-01 -2.0815609395503998e-01</leafValues></_>
        <_>
          <internalNodes>
            0 -1 19 1.6081687062978745e-02</internalNodes>
          <leafValues>
            6.7969185113906860e-01 -2.8391200304031372e-01</leafValues></_>
        <_>
          <internalNodes>
            0 -1 20 1.1115085333585739e-02</internalNodes>
          <leafValues>
            8.4492760896682739e-01 -2.2031463682651520e-01</leafValues></_>
        <_>
          <internalNodes>
            0 -1 12 1.3443038798868656e-02</internalNodes>
          <leafValues>
            6.5726548433303833e-01 -2.0753605663776398e-01</leafValues></_>
        <_>
          <internalNodes>
            0 -1 14 4.2603589594364166e-02</internalNodes>
          <leafValues>
            -1.8216288089752197e-01 8.1525945663452148e-01</leafValues></_>
        <_>
          <internalNodes>
            0 -1 2 2.8190568089485168e-02</internalNodes>
          <leafValues>
            3.4693789482116699e-01 -5.9731394052505493e-01</leafValues></_>
        <_>
          <internalNodes>
            0 -1 18 1.0386636480689049e-02</internalNodes>
          <leafValues>
            8.8640242815017700e-01 -2.3562836647033691e-01</leafValues></_>
        <_>
          <internalNodes>
            0 -1 7 9.2497151345014572e-03</internalNodes>
          <leafValues>
            7.9303413629531860e-01 -2.2429707646369934e-01</leafValues></_></weakClassifiers></_></stages>
  <features>
    <_>
      <rect>
        0 4 8 8 29</rect></_>
    <_>
      <rect>
        0 8 8 8 16</rect></_>
    <_>
      <rect>
        0 16 8 8 34</rect></_>
    <_>
      <rect>
        4 16 8 8 13</rect></_>
    <_>
      <rect>
        4 16 8 8 22</rect></_>
    <_>
      <rect>
        8 4 8 8 7</rect></_>
    <_>
      <rect>
        8 4 8 8 15</rect></_>
    <_>
      <rect>
        8 8 8 8 19</rect></_>
    <_>
      <rect>
        8 12 8 8 34</rect></_>
    <_>
      <rect>
        8 16 8 8 31</rect></_>
    <_>
      <rect>
        12 0 8 8 21</rect></_>
    <_>
      <rect>
        12 16 8 8 7</rect></_>
    <_>
      <rect>
        16 4 8 8 8</rect></_>
    <_>
      <rect>
        16 8 8 8 22</rect></_>
    <_>
      <rect>
        16 12 8 8 35</rect></_>
    <_>
      <rect>
        16 16 8 8 21</rect></_>
    <_>
      <rect>
        20 0 8 8 33</rect></_>
    <_>
      <rect>
        20 4 8 8 0</rect></_>
    <_>
      <rect>
        20 12 8 8 1</rect></_>
    <_>
      <rect>
        20 12 8 8 12</rect></_>
    <_>
      <rect>
        20 16 8 8 25</rect></_>
    <_>
      <rect>
        4 0 8 16 9</rect></_>
    <_>
      <rect>
        8 0 8 16 27</rect></_>
    <_>
      <rect>
        16 0 8 16 8</rect></_>
    <_>
      <rect>
        16 0 8 16 28</rect></_>
    <_>
      <rect>
        20 0 8 16 16</rect></_>
    <_>
      <rect>
        20 0 8 16 22</rect></_>
    <_>
      <rect>
        0 0 16 8 14</rect></_>
    <_>
      <rect>
        0 4 16 8 10</rect></_>
    <_>
      <rect>
        0 8 16 8 12</rect></_>
    <_>
      <rect>
        0 12 16 8 24</rect></_>
    <_>
      <rect>
        0 16 16 8 0</rect></_>
    <_>
      <rect>
        0 16 16 8 24</rect></_>
    <_>
      <rect>
        4 8 16 8 13</rect></_>
    <_>
      <rect>
        4 8 16 8 15</rect></_>
    <_>
      <rect>
        4 12 16 8 3</rect></_>
    <_>
      <rect>
        4 12 16 8 16</rect></_>
    <_>
      <rect>
        4 12 16 8 28</rect></_>
    <_>
      <rect>
        0 0 16 16 0</rect></_>
    <_>
      <rect>
        0 0 16 16 9</rect></_>
    <_>
      <rect>
        0 0 16 16 14</rect></_>
    <_>
      <rect>
        4 0 16 16 7</rect></_>
    <_>
      <rect>
        4 0 16 16 30</rect></_></features></cascade>
</opencv_storage>
